<?xml version="1.0"?>
<opencv_storage>
<cascade>
  <stageType>BOOST</stageType>
  <featureType>HAAR</featureType>
  <height>24</height>
  <width>24</width>
  <stageParams>
    <boostType>GAB</boostType>
    <minHitRate>9.9500000476837158e-01</minHitRate>
    <maxFalseAlarm>5.0000000000000000e-01</maxFalseAlarm>
    <weightTrimRate>9.4999998807907104e-01</weightTrimRate>
    <maxDepth>1</maxDepth>
    <maxWeakCount>100</maxWeakCount></stageParams>
  <featureParams>
    <maxCatCount>0</maxCatCount>
    <featSize>1</featSize>
    <mode>BASIC</mode></featureParams>
  <stageNum>19</stageNum>
  <stages>
    <!-- stage 0 -->
    <_>
      <maxWeakCount>5</maxWeakCount>
      <stageThreshold>-1.7926377058029175e+00</stageThreshold>
      <weakClassifiers>
        <_>
          <internalNodes>
            0 -1 85 6.6897636279463768e-03</internalNodes>
          <leafValues>
            -9.0725809335708618e-01 3.2919254899024963e-01</leafValues></_>
        <_>
          <internalNodes>
            0 -1 1 1.6942683607339859e-02</internalNodes>
          <leafValues>
            -6.7961907386779785e-01 5.5344521999359131e-01</leafValues></_>
        <_>
          <internalNodes>
            0 -1 12 -6.9431350566446781e-03</internalNodes>
          <leafValues>
            5.9041792154312134e-01 -4.6936032176017761e-01</leafValues></_>
        <_>
          <internalNodes>
            0 -1 83 -3.2419147901237011e-03</internalNodes>
          <leafValues>
            6.6653519868850708e-01 -3.8432052731513977e-01</leafValues></_>
        <_>
          <internalNodes>
            0 -1 19 3.5281833261251450e-03</internalNodes>
          <leafValues>
            -4.0293547511100769e-01 6.5120261907577515e-01</leafValues></_></weakClassifiers></_>
    <!-- stage 1 -->
    <_>
      <maxWeakCount>7</maxWeakCount>
      <stageThreshold>-1.7085345983505249e+00</stageThreshold>
      <weakClassifiers>
        <_>
          <internalNodes>
            0 -1 162 3.4933723509311676e-02</internalNodes>
          <leafValues>
            -8.5482329130172729e-01 4.5283019542694092e-01</leafValues></_>
        <_>
          <internalNodes>
            0 -1 26 -2.3051779717206955e-02</internalNodes>
          <leafValues>
            7.4673521518707275e-01 -5.7618981599807739e-01</leafValues></_>
        <_>
          <internalNodes>
            0 -1 118 -1.6199363017221913e-05</internalNodes>
          <leafValues>
            4.7750884294509888e-01 -4.8475572466850281e-01</leafValues></_>
        <_>
          <internalNodes>
            0 -1 71 1.5245236456394196e-02</internalNodes>
          <leafValues>
            -3.5435307025909424e-01 5.9308004379272461e-01</leafValues></_>
        <_>
          <internalNodes>
            0 -1 156 6.2000099569559097e-03</internalNodes>
          <leafValues>
            -3.0112007260322571e-01 6.7567270994186401e-01</leafValues></_>
        <_>
          <internalNodes>
            0 -1 66 -2.9528196901082993e-02</internalNodes>
          <leafValues>
            6.8566614389419556e-01 -2.8911441564559937e-01</leafValues></_>
        <_>
          <internalNodes>
            0 -1 112 -1.0199124517384917e-04</internalNodes>
          <leafValues>
            2.9409861564636230e-01 -7.8522336483001709e-01</leafValues></_></weakClassifiers></_>
    <!-- stage 2 -->
    <_>
      <maxWeakCount>8</maxWeakCount>
      <stageThreshold>-1.4440671205520630e+00</stageThreshold>
      <weakClassifiers>
        <_>
          <internalNodes>
            0 -1 15 7.5019128620624542e-02</internalNodes>
          <leafValues>
            -8.4689921140670776e-01 2.2314049303531647e-01</leafValues></_>
        <_>
          <internalNodes>
            0 -1 70 8.3093848079442978e-03</internalNodes>
          <leafValues>
            -6.2325507402420044e-01 4.7089481353759766e-01</leafValues></_>
        <_>
          <internalNodes>
            0 -1 169 1.5661584257031791e-05</internalNodes>
          <leafValues>
            -5.0647878646850586e-01 3.2805281877517700e-01</leafValues></_>
        <_>
          <internalNodes>
            0 -1 145 1.3115456567902584e-05</internalNodes>
          <leafValues>
            -4.1006636619567871e-01 4.2257300019264221e-01</leafValues></_>
        <_>
          <internalNodes>
            0 -1 0 1.5704166144132614e-02</internalNodes>
          <leafValues>
            -2.4736671149730682e-01 6.7306923866271973e-01</leafValues></_>
        <_>
          <internalNodes>
            0 -1 179 -1.4155632925394457e-05</internalNodes>
          <leafValues>
            4.6761798858642578e-01 -3.7102583050727844e-01</leafValues></_>
        <_>
          <internalNodes>
            0 -1 132 1.0196599178016186e-03</internalNodes>
          <leafValues>
            2.2869081795215607e-01 -9.7064077854156494e-01</leafValues></_>
        <_>
          <internalNodes>
            0 -1 81 -1.5843505971133709e-03</internalNodes>
          <leafValues>
            6.5852224826812744e-01 -3.3483695983886719e-01</leafValues></_></weakClassifiers></_>
    <!-- stage 3 -->
    <_>
      <maxWeakCount>8</maxWeakCount>
      <stageThreshold>-1.8471115827560425e+00</stageThreshold>
      <weakClassifiers>
        <_>
          <internalNodes>
            0 -1 158 -6.3319131731987000e-02</internalNodes>
          <leafValues>
            1.0666666924953461e-01 -8.6041873693466187e-01</leafValues></_>
        <_>
          <internalNodes>
            0 -1 79 -4.5543074607849121e-02</internalNodes>
          <leafValues>
            3.2188472151756287e-01 -6.3268721103668213e-01</leafValues></_>
        <_>
          <internalNodes>
            0 -1 61 -1.5105757862329483e-02</internalNodes>
          <leafValues>
            -7.3699319362640381e-01 1.9958263635635376e-01</leafValues></_>
        <_>
          <internalNodes>
            0 -1 96 1.6910969279706478e-03</internalNodes>
          <leafValues>
            1.3560949265956879e-01 -8.6963206529617310e-01</leafValues></_>
        <_>
          <internalNodes>
            0 -1 95 -2.9796333983540535e-03</internalNodes>
          <leafValues>
            -7.8872311115264893e-01 1.8359136581420898e-01</leafValues></_>
        <_>
          <internalNodes>
            0 -1 60 -6.9331210106611252e-03</internalNodes>
          <leafValues>
            -7.8855991363525391e-01 1.2298709154129028e-01</leafValues></_>
        <_>
          <internalNodes>
            0 -1 13 -7.9398788511753082e-03</internalNodes>
          <leafValues>
            7.6879012584686279e-01 -1.8293425440788269e-01</leafValues></_>
        <_>
          <internalNodes>
            0 -1 58 6.8037509918212891e-02</internalNodes>
          <leafValues>
            1.5947254002094269e-01 -9.6188676357269287e-01</leafValues></_></weakClassifiers></_>
    <!-- stage 4 -->
    <_>
      <maxWeakCount>8</maxWeakCount>
      <stageThreshold>-1.8360606431961060e+00</stageThreshold>
      <weakClassifiers>
        <_>
          <internalNodes>
            0 -1 142 -5.2047941833734512e-02</internalNodes>
          <leafValues>
            1.5044248104095459e-01 -8.3076924085617065e-01</leafValues></_>
        <_>
          <internalNodes>
            0 -1 155 4.4064536690711975e-02</internalNodes>
          <leafValues>
            -4.2967420816421509e-01 6.6419869661331177e-01</leafValues></_>
        <_>
          <internalNodes>
            0 -1 170 -3.3109835349023342e-03</internalNodes>
          <leafValues>
            5.9096115827560425e-01 -2.9280883073806763e-01</leafValues></_>
        <_>
          <internalNodes>
            0 -1 88 -3.2345756888389587e-02</internalNodes>
          <leafValues>
            -9.0303695201873779e-01 1.9032362103462219e-01</leafValues></_>
        <_>
          <internalNodes>
            0 -1 119 -5.6266938336193562e-03</internalNodes>
          <leafValues>
            4.6715778112411499e-01 -3.1526562571525574e-01</leafValues></_>
        <_>
          <internalNodes>
            0 -1 105 -1.5424040611833334e-03</internalNodes>
          <leafValues>
            2.9067757725715637e-01 -4.8325192928314209e-01</leafValues></_>
        <_>
          <internalNodes>
            0 -1 7 -8.8255116716027260e-03</internalNodes>
          <leafValues>
            6.1157512664794922e-01 -2.6003980636596680e-01</leafValues></_>
        <_>
          <internalNodes>
            0 -1 10 6.6570802591741085e-03</internalNodes>
          <leafValues>
            -2.8618958592414856e-01 7.7705532312393188e-01</leafValues></_></weakClassifiers></_>
    <!-- stage 5 -->
    <_>
      <maxWeakCount>9</maxWeakCount>
      <stageThreshold>-1.5509624481201172e+00</stageThreshold>
      <weakClassifiers>
        <_>
          <internalNodes>
            0 -1 48 3.1228968873620033e-02</internalNodes>
          <leafValues>
            -8.5319149494171143e-01 -2.1126760542392731e-01</leafValues></_>
        <_>
          <internalNodes>
            0 -1 157 -5.9557721018791199e-02</internalNodes>
          <leafValues>
            2.2015257179737091e-01 -5.3831380605697632e-01</leafValues></_>
        <_>
          <internalNodes>
            0 -1 50 1.5533665195107460e-02</internalNodes>
          <leafValues>
            9.3241222202777863e-02 -1.</leafValues></_>
        <_>
          <internalNodes>
            0 -1 154 -3.2132552587427199e-04</internalNodes>
          <leafValues>
            -7.0350074768066406e-01 1.8979904055595398e-01</leafValues></_>
        <_>
          <internalNodes>
            0 -1 20 1.0185958817601204e-02</internalNodes>
          <leafValues>
            -3.8592624664306641e-01 3.9235249161720276e-01</leafValues></_>
        <_>
          <internalNodes>
            0 -1 52 -2.5433067232370377e-02</internalNodes>
          <leafValues>
            5.3799742460250854e-01 -2.1835836768150330e-01</leafValues></_>
        <_>
          <internalNodes>
            0 -1 29 -3.3691450953483582e-02</internalNodes>
          <leafValues>
            8.3424216508865356e-01 -1.9256666302680969e-01</leafValues></_>
        <_>
          <internalNodes>
            0 -1 21 -5.6813113391399384e-02</internalNodes>
          <leafValues>
            -7.1536135673522949e-01 2.2265383601188660e-01</leafValues></_>
        <_>
          <internalNodes>
            0 -1 115 -1.3751458027400076e-05</internalNodes>
          <leafValues>
            3.1335949897766113e-01 -3.8387331366539001e-01</leafValues></_></weakClassifiers></_>
    <!-- stage 6 -->
    <_>
      <maxWeakCount>10</maxWeakCount>
      <stageThreshold>-1.9505331516265869e+00</stageThreshold>
      <weakClassifiers>
        <_>
          <internalNodes>
            0 -1 9 7.0922836661338806e-02</internalNodes>
          <leafValues>
            -8.4415584802627563e-01 -2.9257643222808838e-01</leafValues></_>
        <_>
          <internalNodes>
            0 -1 78 -7.3369666934013367e-02</internalNodes>
          <leafValues>
            9.6508741378784180e-02 -5.6896996498107910e-01</leafValues></_>
        <_>
          <internalNodes>
            0 -1 97 -4.4273808598518372e-03</internalNodes>
          <leafValues>
            -7.6624912023544312e-01 1.0852511227130890e-01</leafValues></_>
        <_>
          <internalNodes>
            0 -1 46 -4.4641457498073578e-03</internalNodes>
          <leafValues>
            4.3432915210723877e-01 -2.7988675236701965e-01</leafValues></_>
        <_>
          <internalNodes>
            0 -1 168 -6.2974113970994949e-03</internalNodes>
          <leafValues>
            3.8182339072227478e-01 -2.9290935397148132e-01</leafValues></_>
        <_>
          <internalNodes>
            0 -1 14 -2.8318632394075394e-02</internalNodes>
          <leafValues>
            7.0890790224075317e-01 -1.6804876923561096e-01</leafValues></_>
        <_>
          <internalNodes>
            0 -1 167 1.4165365428198129e-05</internalNodes>
          <leafValues>
            -2.8391999006271362e-01 3.7374073266983032e-01</leafValues></_>
        <_>
          <internalNodes>
            0 -1 123 2.2188294678926468e-03</internalNodes>
          <leafValues>
            1.7250852286815643e-01 -6.6024875640869141e-01</leafValues></_>
        <_>
          <internalNodes>
            0 -1 159 3.7713760975748301e-03</internalNodes>
          <leafValues>
            -3.1024968624114990e-01 3.8155153393745422e-01</leafValues></_>
        <_>
          <internalNodes>
            0 -1 172 1.4150401577353477e-02</internalNodes>
          <leafValues>
            -1.7522768676280975e-01 7.3143100738525391e-01</leafValues></_></weakClassifiers></_>
    <!-- stage 7 -->
    <_>
      <maxWeakCount>10</maxWeakCount>
      <stageThreshold>-1.9047969579696655e+00</stageThreshold>
      <weakClassifiers>
        <_>
          <internalNodes>
            0 -1 161 -6.4687460660934448e-02</internalNodes>
          <leafValues>
            -1.1258278042078018e-01 -8.2834333181381226e-01</leafValues></_>
        <_>
          <internalNodes>
            0 -1 36 3.0998801812529564e-03</internalNodes>
          <leafValues>
            -5.9849828481674194e-01 1.2349556386470795e-01</leafValues></_>
        <_>
          <internalNodes>
            0 -1 135 -2.4350280873477459e-03</internalNodes>
          <leafValues>
            -7.4484461545944214e-01 1.3514688611030579e-01</leafValues></_>
        <_>
          <internalNodes>
            0 -1 59 -2.9939580708742142e-03</internalNodes>
          <leafValues>
            -8.2967990636825562e-01 1.5584179759025574e-01</leafValues></_>
        <_>
          <internalNodes>
            0 -1 56 -3.2284918706864119e-03</internalNodes>
          <leafValues>
            7.1161109209060669e-01 -1.8434274196624756e-01</leafValues></_>
        <_>
          <internalNodes>
            0 -1 180 1.4607906341552734e-03</internalNodes>
          <leafValues>
            1.4534935355186462e-01 -7.9839438199996948e-01</leafValues></_>
        <_>
          <internalNodes>
            0 -1 98 -2.1730727166868746e-04</internalNodes>
          <leafValues>
            1.2348039448261261e-01 -7.2668576240539551e-01</leafValues></_>
        <_>
          <internalNodes>
            0 -1 130 -2.4490021169185638e-03</internalNodes>
          <leafValues>
            -7.4571985006332397e-01 1.1005498468875885e-01</leafValues></_>
        <_>
          <internalNodes>
            0 -1 133 -1.2702350431936793e-05</internalNodes>
          <leafValues>
            3.1652095913887024e-01 -3.1366431713104248e-01</leafValues></_>
        <_>
          <internalNodes>
            0 -1 47 4.6142218634486198e-03</internalNodes>
          <leafValues>
            -3.8205105066299438e-01 2.6030486822128296e-01</leafValues></_></weakClassifiers></_>
    <!-- stage 8 -->
    <_>
      <maxWeakCount>8</maxWeakCount>
      <stageThreshold>-1.5049272775650024e+00</stageThreshold>
      <weakClassifiers>
        <_>
          <internalNodes>
            0 -1 4 5.3465340286493301e-02</internalNodes>
          <leafValues>
            -8.1872510910034180e-01 -1.6778524219989777e-01</leafValues></_>
        <_>
          <internalNodes>
            0 -1 134 2.3723905906081200e-02</internalNodes>
          <leafValues>
            -5.2227026224136353e-01 2.5829267501831055e-01</leafValues></_>
        <_>
          <internalNodes>
            0 -1 140 2.3184758611023426e-03</internalNodes>
          <leafValues>
            1.0563692450523376e-01 -9.0050834417343140e-01</leafValues></_>
        <_>
          <internalNodes>
            0 -1 139 -1.8232098082080483e-03</internalNodes>
          <leafValues>
            -6.7844629287719727e-01 1.7888839542865753e-01</leafValues></_>
        <_>
          <internalNodes>
            0 -1 17 -1.1183003336191177e-01</internalNodes>
          <leafValues>
            7.9733914136886597e-01 -1.6325461864471436e-01</leafValues></_>
        <_>
          <internalNodes>
            0 -1 74 -1.3448296813294291e-03</internalNodes>
          <leafValues>
            -6.0086899995803833e-01 2.0273521542549133e-01</leafValues></_>
        <_>
          <internalNodes>
            0 -1 72 2.2665532305836678e-03</internalNodes>
          <leafValues>
            1.3230080902576447e-01 -7.5314050912857056e-01</leafValues></_>
        <_>
          <internalNodes>
            0 -1 101 1.2112078256905079e-03</internalNodes>
          <leafValues>
            -3.0896535515785217e-01 3.4888997673988342e-01</leafValues></_></weakClassifiers></_>
    <!-- stage 9 -->
    <_>
      <maxWeakCount>12</maxWeakCount>
      <stageThreshold>-1.4825899600982666e+00</stageThreshold>
      <weakClassifiers>
        <_>
          <internalNodes>
            0 -1 43 1.9262466579675674e-02</internalNodes>
          <leafValues>
            -7.9541110992431641e-01 -1.4018692076206207e-01</leafValues></_>
        <_>
          <internalNodes>
            0 -1 93 6.6548883914947510e-03</internalNodes>
          <leafValues>
            -5.4304271936416626e-01 7.2535894811153412e-02</leafValues></_>
        <_>
          <internalNodes>
            0 -1 121 -1.8474822863936424e-03</internalNodes>
          <leafValues>
            2.5499117374420166e-01 -4.0827158093452454e-01</leafValues></_>
        <_>
          <internalNodes>
            0 -1 131 -5.1633501425385475e-03</internalNodes>
          <leafValues>
            -7.9402101039886475e-01 1.3511723279953003e-01</leafValues></_>
        <_>
          <internalNodes>
            0 -1 104 -1.5303412452340126e-02</internalNodes>
          <leafValues>
            7.2183960676193237e-01 -1.5827795863151550e-01</leafValues></_>
        <_>
          <internalNodes>
            0 -1 28 -1.7358060926198959e-02</internalNodes>
          <leafValues>
            3.5213303565979004e-01 -2.9350554943084717e-01</leafValues></_>
        <_>
          <internalNodes>
            0 -1 11 3.0608214437961578e-02</internalNodes>
          <leafValues>
            1.5634149312973022e-01 -6.4120340347290039e-01</leafValues></_>
        <_>
          <internalNodes>
            0 -1 90 -2.0062617957592010e-02</internalNodes>
          <leafValues>
            -7.8074014186859131e-01 1.3692741096019745e-01</leafValues></_>
        <_>
          <internalNodes>
            0 -1 44 1.3457124587148428e-03</internalNodes>
          <leafValues>
            9.9563978612422943e-02 -7.5711375474929810e-01</leafValues></_>
        <_>
          <internalNodes>
            0 -1 146 -1.0716530960053205e-03</internalNodes>
          <leafValues>
            3.3685117959976196e-01 -2.5840836763381958e-01</leafValues></_>
        <_>
          <internalNodes>
            0 -1 184 5.7607277994975448e-04</internalNodes>
          <leafValues>
            1.3429857790470123e-01 -6.8566483259201050e-01</leafValues></_>
        <_>
          <internalNodes>
            0 -1 120 -7.7487662201747298e-04</internalNodes>
          <leafValues>
            4.3359118700027466e-01 -2.2271776199340820e-01</leafValues></_></weakClassifiers></_>
    <!-- stage 10 -->
    <_>
      <maxWeakCount>11</maxWeakCount>
      <stageThreshold>-1.8652703762054443e+00</stageThreshold>
      <weakClassifiers>
        <_>
          <internalNodes>
            0 -1 27 3.3048638142645359e-03</internalNodes>
          <leafValues>
            -8.2308524847030640e-01 -3.7168142199516296e-01</leafValues></_>
        <_>
          <internalNodes>
            0 -1 69 3.3767144195735455e-03</internalNodes>
          <leafValues>
            -4.6297299861907959e-01 1.5065647661685944e-01</leafValues></_>
        <_>
          <internalNodes>
            0 -1 144 -5.9211533516645432e-04</internalNodes>
          <leafValues>
            3.3968988060951233e-01 -2.9321667551994324e-01</leafValues></_>
        <_>
          <internalNodes>
            0 -1 64 1.6237178351730108e-03</internalNodes>
          <leafValues>
            -1.5272399783134460e-01 5.7627558708190918e-01</leafValues></_>
        <_>
          <internalNodes>
            0 -1 53 -7.7744675800204277e-03</internalNodes>
          <leafValues>
            4.2457243800163269e-01 -2.3043309152126312e-01</leafValues></_>
        <_>
          <internalNodes>
            0 -1 111 -2.9823422664776444e-04</internalNodes>
          <leafValues>
            1.1831819266080856e-01 -8.3734512329101563e-01</leafValues></_>
        <_>
          <internalNodes>
            0 -1 16 7.6788658043369651e-04</internalNodes>
          <leafValues>
            1.4123098552227020e-01 -6.2214761972427368e-01</leafValues></_>
        <_>
          <internalNodes>
            0 -1 68 -8.3815841935575008e-04</internalNodes>
          <leafValues>
            4.4991448521614075e-01 -2.0544190704822540e-01</leafValues></_>
        <_>
          <internalNodes>
            0 -1 54 3.3502606675028801e-03</internalNodes>
          <leafValues>
            -2.3087401688098907e-01 3.6087995767593384e-01</leafValues></_>
        <_>
          <internalNodes>
            0 -1 40 1.2081193923950195e-01</internalNodes>
          <leafValues>
            -1.2058973312377930e-01 8.7628370523452759e-01</leafValues></_>
        <_>
          <internalNodes>
            0 -1 160 2.0730961114168167e-02</internalNodes>
          <leafValues>
            -3.1763833761215210e-01 3.9451810717582703e-01</leafValues></_></weakClassifiers></_>
    <!-- stage 11 -->
    <_>
      <maxWeakCount>12</maxWeakCount>
      <stageThreshold>-1.6754437685012817e+00</stageThreshold>
      <weakClassifiers>
        <_>
          <internalNodes>
            0 -1 24 1.4846332371234894e-02</internalNodes>
          <leafValues>
            -7.7348065376281738e-01 -1.0447761416435242e-01</leafValues></_>
        <_>
          <internalNodes>
            0 -1 129 1.2967849150300026e-02</internalNodes>
          <leafValues>
            -4.6240317821502686e-01 1.1066025495529175e-01</leafValues></_>
        <_>
          <internalNodes>
            0 -1 173 -2.2523433435708284e-03</internalNodes>
          <leafValues>
            4.1306254267692566e-01 -2.2034123539924622e-01</leafValues></_>
        <_>
          <internalNodes>
            0 -1 125 1.9498048350214958e-03</internalNodes>
          <leafValues>
            9.4175726175308228e-02 -9.7707170248031616e-01</leafValues></_>
        <_>
          <internalNodes>
            0 -1 106 8.1506580114364624e-02</internalNodes>
          <leafValues>
            1.2768293917179108e-01 -7.5766128301620483e-01</leafValues></_>
        <_>
          <internalNodes>
            0 -1 37 -5.8775357902050018e-02</internalNodes>
          <leafValues>
            -6.1352396011352539e-01 1.3375864923000336e-01</leafValues></_>
        <_>
          <internalNodes>
            0 -1 136 -8.5092633962631226e-02</internalNodes>
          <leafValues>
            3.0463260412216187e-01 -3.0053943395614624e-01</leafValues></_>
        <_>
          <internalNodes>
            0 -1 38 -1.4343538880348206e-01</internalNodes>
          <leafValues>
            7.9934632778167725e-01 -1.3196603953838348e-01</leafValues></_>
        <_>
          <internalNodes>
            0 -1 82 3.5475711338222027e-03</internalNodes>
          <leafValues>
            -2.1635422110557556e-01 4.6551418304443359e-01</leafValues></_>
        <_>
          <internalNodes>
            0 -1 153 1.1184448339918163e-05</internalNodes>
          <leafValues>
            -2.5113740563392639e-01 3.4655827283859253e-01</leafValues></_>
        <_>
          <internalNodes>
            0 -1 114 -4.0778676047921181e-03</internalNodes>
          <leafValues>
            4.4097000360488892e-01 -2.0969963073730469e-01</leafValues></_>
        <_>
          <internalNodes>
            0 -1 67 1.4342030044645071e-03</internalNodes>
          <leafValues>
            1.0390789806842804e-01 -7.8411149978637695e-01</leafValues></_></weakClassifiers></_>
    <!-- stage 12 -->
    <_>
      <maxWeakCount>10</maxWeakCount>
      <stageThreshold>-1.4552624225616455e+00</stageThreshold>
      <weakClassifiers>
        <_>
          <internalNodes>
            0 -1 176 -3.5909186117351055e-03</internalNodes>
          <leafValues>
            -2.9496401548385620e-01 -7.9487180709838867e-01</leafValues></_>
        <_>
          <internalNodes>
            0 -1 80 -1.5356087824329734e-03</internalNodes>
          <leafValues>
            2.6493450999259949e-01 -3.9779630303382874e-01</leafValues></_>
        <_>
          <internalNodes>
            0 -1 108 4.0826192125678062e-03</internalNodes>
          <leafValues>
            8.5211090743541718e-02 -9.7002285718917847e-01</leafValues></_>
        <_>
          <internalNodes>
            0 -1 3 5.0149240996688604e-04</internalNodes>
          <leafValues>
            -4.1119027137756348e-01 2.4073849618434906e-01</leafValues></_>
        <_>
          <internalNodes>
            0 -1 124 1.3332233720575459e-05</internalNodes>
          <leafValues>
            -2.6489299535751343e-01 3.7893429398536682e-01</leafValues></_>
        <_>
          <internalNodes>
            0 -1 92 -1.3639002572745085e-03</internalNodes>
          <leafValues>
            5.7077300548553467e-01 -1.6797201335430145e-01</leafValues></_>
        <_>
          <internalNodes>
            0 -1 7 9.2242043465375900e-03</internalNodes>
          <leafValues>
            -1.4936351776123047e-01 5.6526190042495728e-01</leafValues></_>
        <_>
          <internalNodes>
            0 -1 25 -2.6312559843063354e-02</internalNodes>
          <leafValues>
            4.2491596937179565e-01 -2.2833983600139618e-01</leafValues></_>
        <_>
          <internalNodes>
            0 -1 30 1.7197901010513306e-01</internalNodes>
          <leafValues>
            1.8079778552055359e-01 -7.3350554704666138e-01</leafValues></_>
        <_>
          <internalNodes>
            0 -1 128 2.0007612183690071e-03</internalNodes>
          <leafValues>
            1.2475142627954483e-01 -6.2150424718856812e-01</leafValues></_></weakClassifiers></_>
    <!-- stage 13 -->
    <_>
      <maxWeakCount>10</maxWeakCount>
      <stageThreshold>-1.5327161550521851e+00</stageThreshold>
      <weakClassifiers>
        <_>
          <internalNodes>
            0 -1 22 -5.0267934799194336e-02</internalNodes>
          <leafValues>
            5.5555558204650879e-01 -7.5506609678268433e-01</leafValues></_>
        <_>
          <internalNodes>
            0 -1 148 6.2007210217416286e-03</internalNodes>
          <leafValues>
            -5.9543901681900024e-01 3.9268098771572113e-02</leafValues></_>
        <_>
          <internalNodes>
            0 -1 182 -7.6153818517923355e-03</internalNodes>
          <leafValues>
            -4.7580879926681519e-01 1.6803680360317230e-01</leafValues></_>
        <_>
          <internalNodes>
            0 -1 39 -2.0050126314163208e-01</internalNodes>
          <leafValues>
            2.9436382651329041e-01 -3.1637117266654968e-01</leafValues></_>
        <_>
          <internalNodes>
            0 -1 174 -1.2502659810706973e-03</internalNodes>
          <leafValues>
            -6.8244844675064087e-01 1.2068287283182144e-01</leafValues></_>
        <_>
          <internalNodes>
            0 -1 45 -1.8552056280896068e-04</internalNodes>
          <leafValues>
            3.0709296464920044e-01 -3.0393791198730469e-01</leafValues></_>
        <_>
          <internalNodes>
            0 -1 51 2.1395469084382057e-03</internalNodes>
          <leafValues>
            -1.7326159775257111e-01 4.3671941757202148e-01</leafValues></_>
        <_>
          <internalNodes>
            0 -1 87 5.7971179485321045e-03</internalNodes>
          <leafValues>
            1.1186897754669189e-01 -7.8648769855499268e-01</leafValues></_>
        <_>
          <internalNodes>
            0 -1 109 1.0209667962044477e-03</internalNodes>
          <leafValues>
            1.3289916515350342e-01 -4.9017709493637085e-01</leafValues></_>
        <_>
          <internalNodes>
            0 -1 181 1.1755518244171981e-05</internalNodes>
          <leafValues>
            -3.0157846212387085e-01 2.5232550501823425e-01</leafValues></_></weakClassifiers></_>
    <!-- stage 14 -->
    <_>
      <maxWeakCount>12</maxWeakCount>
      <stageThreshold>-1.2720553874969482e+00</stageThreshold>
      <weakClassifiers>
        <_>
          <internalNodes>
            0 -1 141 6.9819107651710510e-02</internalNodes>
          <leafValues>
            -7.4803149700164795e-01 8.0000001192092896e-01</leafValues></_>
        <_>
          <internalNodes>
            0 -1 117 -2.7587097138166428e-03</internalNodes>
          <leafValues>
            -1.6674678772687912e-03 -6.1668837070465088e-01</leafValues></_>
        <_>
          <internalNodes>
            0 -1 137 7.2427641134709120e-04</internalNodes>
          <leafValues>
            1.0049396008253098e-01 -7.3602944612503052e-01</leafValues></_>
        <_>
          <internalNodes>
            0 -1 149 -2.2835717536509037e-03</internalNodes>
          <leafValues>
            3.0507066845893860e-01 -2.4374569952487946e-01</leafValues></_>
        <_>
          <internalNodes>
            0 -1 103 -3.4588665585033596e-05</internalNodes>
          <leafValues>
            2.9855096340179443e-01 -2.7859896421432495e-01</leafValues></_>
        <_>
          <internalNodes>
            0 -1 165 3.7390887737274170e-03</internalNodes>
          <leafValues>
            -1.7352266609668732e-01 4.8677724599838257e-01</leafValues></_>
        <_>
          <internalNodes>
            0 -1 89 -1.6910058911889791e-03</internalNodes>
          <leafValues>
            -6.0932940244674683e-01 1.7866459488868713e-01</leafValues></_>
        <_>
          <internalNodes>
            0 -1 152 3.4909477108158171e-05</internalNodes>
          <leafValues>
            -2.6578086614608765e-01 3.2073912024497986e-01</leafValues></_>
        <_>
          <internalNodes>
            0 -1 34 1.6551590524613857e-03</internalNodes>
          <leafValues>
            -2.1447883546352386e-01 3.7883448600769043e-01</leafValues></_>
        <_>
          <internalNodes>
            0 -1 113 1.0123786050826311e-03</internalNodes>
          <leafValues>
            1.0551793128252029e-01 -8.2903873920440674e-01</leafValues></_>
        <_>
          <internalNodes>
            0 -1 163 -7.2621391154825687e-04</internalNodes>
          <leafValues>
            -6.3137984275817871e-01 1.2006089091300964e-01</leafValues></_>
        <_>
          <internalNodes>
            0 -1 57 1.0457290336489677e-03</internalNodes>
          <leafValues>
            -1.9830916821956635e-01 4.4371274113655090e-01</leafValues></_></weakClassifiers></_>
    <!-- stage 15 -->
    <_>
      <maxWeakCount>12</maxWeakCount>
      <stageThreshold>-1.7038832902908325e+00</stageThreshold>
      <weakClassifiers>
        <_>
          <internalNodes>
            0 -1 23 6.6096540540456772e-03</internalNodes>
          <leafValues>
            -7.9793816804885864e-01 -3.9890709519386292e-01</leafValues></_>
        <_>
          <internalNodes>
            0 -1 41 -1.1103965342044830e-02</internalNodes>
          <leafValues>
            3.1737467646598816e-01 -3.5656043887138367e-01</leafValues></_>
        <_>
          <internalNodes>
            0 -1 2 1.6131170094013214e-02</internalNodes>
          <leafValues>
            -3.3271837234497070e-01 2.5047740340232849e-01</leafValues></_>
        <_>
          <internalNodes>
            0 -1 73 -4.3416377156972885e-03</internalNodes>
          <leafValues>
            2.2314177453517914e-01 -3.8327893614768982e-01</leafValues></_>
        <_>
          <internalNodes>
            0 -1 42 1.3079526834189892e-03</internalNodes>
          <leafValues>
            -1.2913621962070465e-01 4.8321396112442017e-01</leafValues></_>
        <_>
          <internalNodes>
            0 -1 62 9.4118760898709297e-04</internalNodes>
          <leafValues>
            -1.8697801232337952e-01 4.4161072373390198e-01</leafValues></_>
        <_>
          <internalNodes>
            0 -1 122 -6.7153014242649078e-03</internalNodes>
          <leafValues>
            -5.1476407051086426e-01 1.6133666038513184e-01</leafValues></_>
        <_>
          <internalNodes>
            0 -1 63 1.6613746993243694e-04</internalNodes>
          <leafValues>
            2.8407877683639526e-01 -3.3226329088211060e-01</leafValues></_>
        <_>
          <internalNodes>
            0 -1 18 1.6942755319178104e-03</internalNodes>
          <leafValues>
            9.2985115945339203e-02 -8.2461267709732056e-01</leafValues></_>
        <_>
          <internalNodes>
            0 -1 49 -1.3893528375774622e-03</internalNodes>
          <leafValues>
            5.1912897825241089e-01 -1.6479809582233429e-01</leafValues></_>
        <_>
          <internalNodes>
            0 -1 100 8.3175080362707376e-04</internalNodes>
          <leafValues>
            -3.1526702642440796e-01 2.9930660128593445e-01</leafValues></_>
        <_>
          <internalNodes>
            0 -1 91 -4.0554554288974032e-05</internalNodes>
          <leafValues>
            3.1583157181739807e-01 -2.5737002491950989e-01</leafValues></_></weakClassifiers></_>
    <!-- stage 16 -->
    <_>
      <maxWeakCount>11</maxWeakCount>
      <stageThreshold>-1.6580463647842407e+00</stageThreshold>
      <weakClassifiers>
        <_>
          <internalNodes>
            0 -1 55 4.5389072038233280e-03</internalNodes>
          <leafValues>
            -7.6280325651168823e-01 5.0000000745058060e-02</leafValues></_>
        <_>
          <internalNodes>
            0 -1 83 -3.2413778826594353e-03</internalNodes>
          <leafValues>
            1.3055539131164551e-01 -4.7162052989006042e-01</leafValues></_>
        <_>
          <internalNodes>
            0 -1 168 -7.0969723165035248e-03</internalNodes>
          <leafValues>
            2.6433289051055908e-01 -2.9967856407165527e-01</leafValues></_>
        <_>
          <internalNodes>
            0 -1 175 8.2772150635719299e-03</internalNodes>
          <leafValues>
            -1.2697377800941467e-01 5.5419212579727173e-01</leafValues></_>
        <_>
          <internalNodes>
            0 -1 150 -1.5528772026300430e-02</internalNodes>
          <leafValues>
            -8.4814065694808960e-01 9.5319867134094238e-02</leafValues></_>
        <_>
          <internalNodes>
            0 -1 177 -5.6788558140397072e-03</internalNodes>
          <leafValues>
            4.3401411175727844e-01 -1.7080436646938324e-01</leafValues></_>
        <_>
          <internalNodes>
            0 -1 107 -9.1690526460297406e-05</internalNodes>
          <leafValues>
            1.4140841364860535e-01 -5.0553989410400391e-01</leafValues></_>
        <_>
          <internalNodes>
            0 -1 138 1.1977999471127987e-02</internalNodes>
          <leafValues>
            -2.7866908907890320e-01 3.1043493747711182e-01</leafValues></_>
        <_>
          <internalNodes>
            0 -1 143 5.4878224618732929e-03</internalNodes>
          <leafValues>
            -1.5455596148967743e-01 6.7678570747375488e-01</leafValues></_>
        <_>
          <internalNodes>
            0 -1 77 -9.3031339347362518e-03</internalNodes>
          <leafValues>
            2.2730238735675812e-01 -3.5557264089584351e-01</leafValues></_>
        <_>
          <internalNodes>
            0 -1 8 -2.8079168871045113e-02</internalNodes>
          <leafValues>
            7.7769285440444946e-01 -1.0543819516897202e-01</leafValues></_></weakClassifiers></_>
    <!-- stage 17 -->
    <_>
      <maxWeakCount>13</maxWeakCount>
      <stageThreshold>-1.5280795097351074e+00</stageThreshold>
      <weakClassifiers>
        <_>
          <internalNodes>
            0 -1 6 -3.4068569540977478e-02</internalNodes>
          <leafValues>
            8.1818181276321411e-01 -7.4956214427947998e-01</leafValues></_>
        <_>
          <internalNodes>
            0 -1 171 -5.8366395533084869e-03</internalNodes>
          <leafValues>
            3.2702088356018066e-01 -3.5556265711784363e-01</leafValues></_>
        <_>
          <internalNodes>
            0 -1 65 6.4119580201804638e-03</internalNodes>
          <leafValues>
            -2.1582384407520294e-01 3.6733317375183105e-01</leafValues></_>
        <_>
          <internalNodes>
            0 -1 84 8.0336369574069977e-03</internalNodes>
          <leafValues>
            -3.0230748653411865e-01 2.4976408481597900e-01</leafValues></_>
        <_>
          <internalNodes>
            0 -1 76 -1.9646897912025452e-02</internalNodes>
          <leafValues>
            -6.3383042812347412e-01 1.2367455661296844e-01</leafValues></_>
        <_>
          <internalNodes>
            0 -1 32 -5.6407687952741981e-04</internalNodes>
          <leafValues>
            3.6674794554710388e-01 -2.6593595743179321e-01</leafValues></_>
        <_>
          <internalNodes>
            0 -1 126 4.1386717930436134e-03</internalNodes>
          <leafValues>
            6.1846349388360977e-02 -8.4119278192520142e-01</leafValues></_>
        <_>
          <internalNodes>
            0 -1 94 -2.4583516642451286e-03</internalNodes>
          <leafValues>
            4.5853060483932495e-01 -1.6607265174388885e-01</leafValues></_>
        <_>
          <internalNodes>
            0 -1 183 1.8883334996644408e-04</internalNodes>
          <leafValues>
            1.5393809974193573e-01 -5.2670902013778687e-01</leafValues></_>
        <_>
          <internalNodes>
            0 -1 110 -3.5120397806167603e-03</internalNodes>
          <leafValues>
            5.8388990163803101e-01 -1.3161170482635498e-01</leafValues></_>
        <_>
          <internalNodes>
            0 -1 35 -1.4128474867902696e-04</internalNodes>
          <leafValues>
            -4.5226413011550903e-01 1.8542687594890594e-01</leafValues></_>
        <_>
          <internalNodes>
            0 -1 127 1.3751458027400076e-05</internalNodes>
          <leafValues>
            -2.4857287108898163e-01 3.3553150296211243e-01</leafValues></_>
        <_>
          <internalNodes>
            0 -1 31 3.1180031597614288e-02</internalNodes>
          <leafValues>
            1.2852777540683746e-01 -6.0710060596466064e-01</leafValues></_></weakClassifiers></_>
    <!-- stage 18 -->
    <_>
      <maxWeakCount>12</maxWeakCount>
      <stageThreshold>-1.4166630506515503e+00</stageThreshold>
      <weakClassifiers>
        <_>
          <internalNodes>
            0 -1 5 -3.0654115602374077e-02</internalNodes>
          <leafValues>
            8.1818181276321411e-01 -7.4956214427947998e-01</leafValues></_>
        <_>
          <internalNodes>
            0 -1 33 -1.0221203789114952e-02</internalNodes>
          <leafValues>
            3.2462637871503830e-02 -5.4275554418563843e-01</leafValues></_>
        <_>
          <internalNodes>
            0 -1 164 -1.4138621045276523e-03</internalNodes>
          <leafValues>
            -7.3304957151412964e-01 7.7163346111774445e-02</leafValues></_>
        <_>
          <internalNodes>
            0 -1 147 1.7018045764416456e-04</internalNodes>
          <leafValues>
            -4.5129799842834473e-01 1.7550896108150482e-01</leafValues></_>
        <_>
          <internalNodes>
            0 -1 166 -6.8637647200375795e-04</internalNodes>
          <leafValues>
            3.0330130457878113e-01 -2.4877724051475525e-01</leafValues></_>
        <_>
          <internalNodes>
            0 -1 151 1.4766980893909931e-03</internalNodes>
          <leafValues>
            1.3581301271915436e-01 -6.8604046106338501e-01</leafValues></_>
        <_>
          <internalNodes>
            0 -1 178 -2.6010121218860149e-03</internalNodes>
          <leafValues>
            4.4656947255134583e-01 -1.9395136833190918e-01</leafValues></_>
        <_>
          <internalNodes>
            0 -1 86 -2.5970907881855965e-04</internalNodes>
          <leafValues>
            -4.6061953902244568e-01 1.8936029076576233e-01</leafValues></_>
        <_>
          <internalNodes>
            0 -1 116 -1.9307469483464956e-04</internalNodes>
          <leafValues>
            3.7576848268508911e-01 -2.2605340182781219e-01</leafValues></_>
        <_>
          <internalNodes>
            0 -1 99 -7.3834101203829050e-04</internalNodes>
          <leafValues>
            4.0512719750404358e-01 -1.8529638648033142e-01</leafValues></_>
        <_>
          <internalNodes>
            0 -1 102 7.9312543675769120e-05</internalNodes>
          <leafValues>
            -3.0709129571914673e-01 3.0080682039260864e-01</leafValues></_>
        <_>
          <internalNodes>
            0 -1 75 1.2610269710421562e-02</internalNodes>
          <leafValues>
            1.2085554003715515e-01 -6.4607495069503784e-01</leafValues></_></weakClassifiers></_></stages>
  <features>
    <_>
      <rects>
        <_>
          0 0 4 5 -1.</_>
        <_>
          2 0 2 5 2.</_></rects>
      <tilted>0</tilted></_>
    <_>
      <rects>
        <_>
          0 0 4 9 -1.</_>
        <_>
          2 0 2 9 2.</_></rects>
      <tilted>0</tilted></_>
    <_>
      <rects>
        <_>
          0 0 9 9 -1.</_>
        <_>
          3 0 3 9 3.</_></rects>
      <tilted>0</tilted></_>
    <_>
      <rects>
        <_>
          0 0 6 2 -1.</_>
        <_>
          0 1 6 1 2.</_></rects>
      <tilted>0</tilted></_>
    <_>
      <rects>
        <_>
          0 0 20 4 -1.</_>
        <_>
          0 2 20 2 2.</_></rects>
      <tilted>0</tilted></_>
    <_>
      <rects>
        <_>
          0 0 21 2 -1.</_>
        <_>
          0 1 21 1 2.</_></rects>
      <tilted>0</tilted></_>
    <_>
      <rects>
        <_>
          0 0 23 2 -1.</_>
        <_>
          0 1 23 1 2.</_></rects>
      <tilted>0</tilted></_>
    <_>
      <rects>
        <_>
          0 1 3 11 -1.</_>
        <_>
          1 1 1 11 3.</_></rects>
      <tilted>0</tilted></_>
    <_>
      <rects>
        <_>
          0 1 4 12 -1.</_>
        <_>
          2 1 2 12 2.</_></rects>
      <tilted>0</tilted></_>
    <_>
      <rects>
        <_>
          0 1 6 15 -1.</_>
        <_>
          3 1 3 15 2.</_></rects>
      <tilted>0</tilted></_>
    <_>
      <rects>
        <_>
          0 2 3 9 -1.</_>
        <_>
          1 2 1 9 3.</_></rects>
      <tilted>0</tilted></_>
    <_>
      <rects>
        <_>
          0 4 24 10 -1.</_>
        <_>
          0 4 12 5 2.</_>
        <_>
          12 9 12 5 2.</_></rects>
      <tilted>0</tilted></_>
    <_>
      <rects>
        <_>
          0 5 6 7 -1.</_>
        <_>
          2 5 2 7 3.</_></rects>
      <tilted>0</tilted></_>
    <_>
      <rects>
        <_>
          0 7 3 4 -1.</_>
        <_>
          1 7 1 4 3.</_></rects>
      <tilted>0</tilted></_>
    <_>
      <rects>
        <_>
          0 9 6 7 -1.</_>
        <_>
          3 9 3 7 2.</_></rects>
      <tilted>0</tilted></_>
    <_>
      <rects>
        <_>
          0 16 24 3 -1.</_>
        <_>
          8 16 8 3 3.</_></rects>
      <tilted>0</tilted></_>
    <_>
      <rects>
        <_>
          0 18 2 3 -1.</_>
        <_>
          0 19 2 1 3.</_></rects>
      <tilted>0</tilted></_>
    <_>
      <rects>
        <_>
          0 18 14 5 -1.</_>
        <_>
          7 18 7 5 2.</_></rects>
      <tilted>0</tilted></_>
    <_>
      <rects>
        <_>
          0 20 3 2 -1.</_>
        <_>
          0 21 3 1 2.</_></rects>
      <tilted>0</tilted></_>
    <_>
      <rects>
        <_>
          1 0 9 2 -1.</_>
        <_>
          1 1 9 1 2.</_></rects>
      <tilted>0</tilted></_>
    <_>
      <rects>
        <_>
          1 0 9 6 -1.</_>
        <_>
          1 2 9 2 3.</_></rects>
      <tilted>0</tilted></_>
    <_>
      <rects>
        <_>
          1 0 22 14 -1.</_>
        <_>
          1 0 11 7 2.</_>
        <_>
          12 7 11 7 2.</_></rects>
      <tilted>0</tilted></_>
    <_>
      <rects>
        <_>
          1 0 14 4 -1.</_>
        <_>
          1 2 14 2 2.</_></rects>
      <tilted>0</tilted></_>
    <_>
      <rects>
        <_>
          1 4 3 12 -1.</_>
        <_>
          2 4 1 12 3.</_></rects>
      <tilted>0</tilted></_>
    <_>
      <rects>
        <_>
          1 5 2 6 -1.</_>
        <_>
          2 5 1 6 2.</_></rects>
      <tilted>0</tilted></_>
    <_>
      <rects>
        <_>
          1 6 4 18 -1.</_>
        <_>
          1 6 2 9 2.</_>
        <_>
          3 15 2 9 2.</_></rects>
      <tilted>0</tilted></_>
    <_>
      <rects>
        <_>
          1 8 4 16 -1.</_>
        <_>
          1 8 2 8 2.</_>
        <_>
          3 16 2 8 2.</_></rects>
      <tilted>0</tilted></_>
    <_>
      <rects>
        <_>
          1 11 4 1 -1.</_>
        <_>
          3 11 2 1 2.</_></rects>
      <tilted>0</tilted></_>
    <_>
      <rects>
        <_>
          1 14 8 10 -1.</_>
        <_>
          1 14 4 5 2.</_>
        <_>
          5 19 4 5 2.</_></rects>
      <tilted>0</tilted></_>
    <_>
      <rects>
        <_>
          1 18 12 2 -1.</_>
        <_>
          7 18 6 2 2.</_></rects>
      <tilted>0</tilted></_>
    <_>
      <rects>
        <_>
          2 0 22 24 -1.</_>
        <_>
          2 0 11 12 2.</_>
        <_>
          13 12 11 12 2.</_></rects>
      <tilted>0</tilted></_>
    <_>
      <rects>
        <_>
          2 1 12 14 -1.</_>
        <_>
          2 1 6 7 2.</_>
        <_>
          8 8 6 7 2.</_></rects>
      <tilted>0</tilted></_>
    <_>
      <rects>
        <_>
          2 3 8 6 -1.</_>
        <_>
          2 5 8 2 3.</_></rects>
      <tilted>0</tilted></_>
    <_>
      <rects>
        <_>
          2 4 8 10 -1.</_>
        <_>
          2 9 8 5 2.</_></rects>
      <tilted>0</tilted></_>
    <_>
      <rects>
        <_>
          2 15 12 2 -1.</_>
        <_>
          2 15 6 1 2.</_>
        <_>
          8 16 6 1 2.</_></rects>
      <tilted>0</tilted></_>
    <_>
      <rects>
        <_>
          2 18 1 2 -1.</_>
        <_>
          2 19 1 1 2.</_></rects>
      <tilted>0</tilted></_>
    <_>
      <rects>
        <_>
          3 0 8 2 -1.</_>
        <_>
          3 1 8 1 2.</_></rects>
      <tilted>0</tilted></_>
    <_>
      <rects>
        <_>
          3 0 20 18 -1.</_>
        <_>
          3 0 10 9 2.</_>
        <_>
          13 9 10 9 2.</_></rects>
      <tilted>0</tilted></_>
    <_>
      <rects>
        <_>
          3 0 17 21 -1.</_>
        <_>
          3 7 17 7 3.</_></rects>
      <tilted>0</tilted></_>
    <_>
      <rects>
        <_>
          3 2 13 22 -1.</_>
        <_>
          3 13 13 11 2.</_></rects>
      <tilted>0</tilted></_>
    <_>
      <rects>
        <_>
          3 6 19 18 -1.</_>
        <_>
          3 15 19 9 2.</_></rects>
      <tilted>0</tilted></_>
    <_>
      <rects>
        <_>
          3 12 4 8 -1.</_>
        <_>
          3 12 2 4 2.</_>
        <_>
          5 16 2 4 2.</_></rects>
      <tilted>0</tilted></_>
    <_>
      <rects>
        <_>
          3 13 2 4 -1.</_>
        <_>
          3 13 1 2 2.</_>
        <_>
          4 15 1 2 2.</_></rects>
      <tilted>0</tilted></_>
    <_>
      <rects>
        <_>
          3 15 4 5 -1.</_>
        <_>
          5 15 2 5 2.</_></rects>
      <tilted>0</tilted></_>
    <_>
      <rects>
        <_>
          3 19 2 3 -1.</_>
        <_>
          3 20 2 1 3.</_></rects>
      <tilted>0</tilted></_>
    <_>
      <rects>
        <_>
          4 0 2 2 -1.</_>
        <_>
          5 0 1 2 2.</_></rects>
      <tilted>0</tilted></_>
    <_>
      <rects>
        <_>
          4 0 9 2 -1.</_>
        <_>
          7 0 3 2 3.</_></rects>
      <tilted>0</tilted></_>
    <_>
      <rects>
        <_>
          4 0 12 6 -1.</_>
        <_>
          4 3 12 3 2.</_></rects>
      <tilted>0</tilted></_>
    <_>
      <rects>
        <_>
          4 0 16 4 -1.</_>
        <_>
          4 2 16 2 2.</_></rects>
      <tilted>0</tilted></_>
    <_>
      <rects>
        <_>
          4 1 3 3 -1.</_>
        <_>
          4 2 3 1 3.</_></rects>
      <tilted>0</tilted></_>
    <_>
      <rects>
        <_>
          4 5 17 10 -1.</_>
        <_>
          4 10 17 5 2.</_></rects>
      <tilted>0</tilted></_>
    <_>
      <rects>
        <_>
          4 12 1 6 -1.</_>
        <_>
          4 14 1 2 3.</_></rects>
      <tilted>0</tilted></_>
    <_>
      <rects>
        <_>
          4 12 3 10 -1.</_>
        <_>
          4 17 3 5 2.</_></rects>
      <tilted>0</tilted></_>
    <_>
      <rects>
        <_>
          4 14 4 8 -1.</_>
        <_>
          4 14 2 4 2.</_>
        <_>
          6 18 2 4 2.</_></rects>
      <tilted>0</tilted></_>
    <_>
      <rects>
        <_>
          4 14 6 8 -1.</_>
        <_>
          4 14 3 4 2.</_>
        <_>
          7 18 3 4 2.</_></rects>
      <tilted>0</tilted></_>
    <_>
      <rects>
        <_>
          4 20 6 2 -1.</_>
        <_>
          4 20 3 1 2.</_>
        <_>
          7 21 3 1 2.</_></rects>
      <tilted>0</tilted></_>
    <_>
      <rects>
        <_>
          5 0 1 4 -1.</_>
        <_>
          5 2 1 2 2.</_></rects>
      <tilted>0</tilted></_>
    <_>
      <rects>
        <_>
          5 1 1 3 -1.</_>
        <_>
          5 2 1 1 3.</_></rects>
      <tilted>0</tilted></_>
    <_>
      <rects>
        <_>
          5 2 16 16 -1.</_>
        <_>
          5 2 8 8 2.</_>
        <_>
          13 10 8 8 2.</_></rects>
      <tilted>0</tilted></_>
    <_>
      <rects>
        <_>
          5 4 3 11 -1.</_>
        <_>
          6 4 1 11 3.</_></rects>
      <tilted>0</tilted></_>
    <_>
      <rects>
        <_>
          5 4 18 4 -1.</_>
        <_>
          5 4 9 2 2.</_>
        <_>
          14 6 9 2 2.</_></rects>
      <tilted>0</tilted></_>
    <_>
      <rects>
        <_>
          5 7 12 10 -1.</_>
        <_>
          5 7 6 5 2.</_>
        <_>
          11 12 6 5 2.</_></rects>
      <tilted>0</tilted></_>
    <_>
      <rects>
        <_>
          5 8 14 2 -1.</_>
        <_>
          5 9 14 1 2.</_></rects>
      <tilted>0</tilted></_>
    <_>
      <rects>
        <_>
          5 12 12 1 -1.</_>
        <_>
          11 12 6 1 2.</_></rects>
      <tilted>0</tilted></_>
    <_>
      <rects>
        <_>
          5 16 2 4 -1.</_>
        <_>
          5 16 1 2 2.</_>
        <_>
          6 18 1 2 2.</_></rects>
      <tilted>0</tilted></_>
    <_>
      <rects>
        <_>
          5 17 6 5 -1.</_>
        <_>
          7 17 2 5 3.</_></rects>
      <tilted>0</tilted></_>
    <_>
      <rects>
        <_>
          5 18 18 3 -1.</_>
        <_>
          11 18 6 3 3.</_></rects>
      <tilted>0</tilted></_>
    <_>
      <rects>
        <_>
          5 21 2 3 -1.</_>
        <_>
          5 22 2 1 3.</_></rects>
      <tilted>0</tilted></_>
    <_>
      <rects>
        <_>
          6 0 4 2 -1.</_>
        <_>
          6 0 2 1 2.</_>
        <_>
          8 1 2 1 2.</_></rects>
      <tilted>0</tilted></_>
    <_>
      <rects>
        <_>
          6 0 8 1 -1.</_>
        <_>
          10 0 4 1 2.</_></rects>
      <tilted>0</tilted></_>
    <_>
      <rects>
        <_>
          6 0 12 2 -1.</_>
        <_>
          6 1 12 1 2.</_></rects>
      <tilted>0</tilted></_>
    <_>
      <rects>
        <_>
          6 0 14 6 -1.</_>
        <_>
          6 2 14 2 3.</_></rects>
      <tilted>0</tilted></_>
    <_>
      <rects>
        <_>
          6 3 2 7 -1.</_>
        <_>
          7 3 1 7 2.</_></rects>
      <tilted>0</tilted></_>
    <_>
      <rects>
        <_>
          6 3 9 8 -1.</_>
        <_>
          6 7 9 4 2.</_></rects>
      <tilted>0</tilted></_>
    <_>
      <rects>
        <_>
          6 4 2 11 -1.</_>
        <_>
          7 4 1 11 2.</_></rects>
      <tilted>0</tilted></_>
    <_>
      <rects>
        <_>
          6 5 12 3 -1.</_>
        <_>
          10 5 4 3 3.</_></rects>
      <tilted>0</tilted></_>
    <_>
      <rects>
        <_>
          6 5 10 14 -1.</_>
        <_>
          6 5 5 7 2.</_>
        <_>
          11 12 5 7 2.</_></rects>
      <tilted>0</tilted></_>
    <_>
      <rects>
        <_>
          6 14 2 10 -1.</_>
        <_>
          6 19 2 5 2.</_></rects>
      <tilted>0</tilted></_>
    <_>
      <rects>
        <_>
          6 14 13 10 -1.</_>
        <_>
          6 19 13 5 2.</_></rects>
      <tilted>0</tilted></_>
    <_>
      <rects>
        <_>
          6 16 11 8 -1.</_>
        <_>
          6 20 11 4 2.</_></rects>
      <tilted>0</tilted></_>
    <_>
      <rects>
        <_>
          6 19 2 4 -1.</_>
        <_>
          6 19 1 2 2.</_>
        <_>
          7 21 1 2 2.</_></rects>
      <tilted>0</tilted></_>
    <_>
      <rects>
        <_>
          6 19 4 2 -1.</_>
        <_>
          6 19 2 1 2.</_>
        <_>
          8 20 2 1 2.</_></rects>
      <tilted>0</tilted></_>
    <_>
      <rects>
        <_>
          6 20 4 2 -1.</_>
        <_>
          8 20 2 2 2.</_></rects>
      <tilted>0</tilted></_>
    <_>
      <rects>
        <_>
          6 20 6 4 -1.</_>
        <_>
          6 20 3 2 2.</_>
        <_>
          9 22 3 2 2.</_></rects>
      <tilted>0</tilted></_>
    <_>
      <rects>
        <_>
          7 0 12 2 -1.</_>
        <_>
          7 1 12 1 2.</_></rects>
      <tilted>0</tilted></_>
    <_>
      <rects>
        <_>
          7 0 14 2 -1.</_>
        <_>
          7 1 14 1 2.</_></rects>
      <tilted>0</tilted></_>
    <_>
      <rects>
        <_>
          7 3 2 3 -1.</_>
        <_>
          8 3 1 3 2.</_></rects>
      <tilted>0</tilted></_>
    <_>
      <rects>
        <_>
          7 6 3 18 -1.</_>
        <_>
          8 6 1 18 3.</_></rects>
      <tilted>0</tilted></_>
    <_>
      <rects>
        <_>
          7 6 14 10 -1.</_>
        <_>
          7 6 7 5 2.</_>
        <_>
          14 11 7 5 2.</_></rects>
      <tilted>0</tilted></_>
    <_>
      <rects>
        <_>
          7 10 2 7 -1.</_>
        <_>
          8 10 1 7 2.</_></rects>
      <tilted>0</tilted></_>
    <_>
      <rects>
        <_>
          7 10 4 8 -1.</_>
        <_>
          7 14 4 4 2.</_></rects>
      <tilted>0</tilted></_>
    <_>
      <rects>
        <_>
          7 16 2 2 -1.</_>
        <_>
          7 16 1 1 2.</_>
        <_>
          8 17 1 1 2.</_></rects>
      <tilted>0</tilted></_>
    <_>
      <rects>
        <_>
          8 0 1 3 -1.</_>
        <_>
          8 1 1 1 3.</_></rects>
      <tilted>0</tilted></_>
    <_>
      <rects>
        <_>
          8 0 15 2 -1.</_>
        <_>
          8 1 15 1 2.</_></rects>
      <tilted>0</tilted></_>
    <_>
      <rects>
        <_>
          8 1 14 3 -1.</_>
        <_>
          8 2 14 1 3.</_></rects>
      <tilted>0</tilted></_>
    <_>
      <rects>
        <_>
          8 2 2 12 -1.</_>
        <_>
          9 2 1 12 2.</_></rects>
      <tilted>0</tilted></_>
    <_>
      <rects>
        <_>
          8 4 2 5 -1.</_>
        <_>
          9 4 1 5 2.</_></rects>
      <tilted>0</tilted></_>
    <_>
      <rects>
        <_>
          8 6 1 8 -1.</_>
        <_>
          8 10 1 4 2.</_></rects>
      <tilted>0</tilted></_>
    <_>
      <rects>
        <_>
          8 7 3 14 -1.</_>
        <_>
          8 14 3 7 2.</_></rects>
      <tilted>0</tilted></_>
    <_>
      <rects>
        <_>
          9 0 3 2 -1.</_>
        <_>
          10 0 1 2 3.</_></rects>
      <tilted>0</tilted></_>
    <_>
      <rects>
        <_>
          9 0 2 2 -1.</_>
        <_>
          9 1 2 1 2.</_></rects>
      <tilted>0</tilted></_>
    <_>
      <rects>
        <_>
          9 0 10 2 -1.</_>
        <_>
          9 0 5 1 2.</_>
        <_>
          14 1 5 1 2.</_></rects>
      <tilted>0</tilted></_>
    <_>
      <rects>
        <_>
          9 1 2 2 -1.</_>
        <_>
          10 1 1 2 2.</_></rects>
      <tilted>0</tilted></_>
    <_>
      <rects>
        <_>
          9 9 3 3 -1.</_>
        <_>
          10 9 1 3 3.</_></rects>
      <tilted>0</tilted></_>
    <_>
      <rects>
        <_>
          10 0 10 6 -1.</_>
        <_>
          10 2 10 2 3.</_></rects>
      <tilted>0</tilted></_>
    <_>
      <rects>
        <_>
          10 3 3 8 -1.</_>
        <_>
          10 7 3 4 2.</_></rects>
      <tilted>0</tilted></_>
    <_>
      <rects>
        <_>
          10 7 10 15 -1.</_>
        <_>
          10 12 10 5 3.</_></rects>
      <tilted>0</tilted></_>
    <_>
      <rects>
        <_>
          10 10 5 8 -1.</_>
        <_>
          10 14 5 4 2.</_></rects>
      <tilted>0</tilted></_>
    <_>
      <rects>
        <_>
          10 11 4 8 -1.</_>
        <_>
          10 15 4 4 2.</_></rects>
      <tilted>0</tilted></_>
    <_>
      <rects>
        <_>
          10 19 6 1 -1.</_>
        <_>
          12 19 2 1 3.</_></rects>
      <tilted>0</tilted></_>
    <_>
      <rects>
        <_>
          10 22 3 2 -1.</_>
        <_>
          10 23 3 1 2.</_></rects>
      <tilted>0</tilted></_>
    <_>
      <rects>
        <_>
          11 4 2 18 -1.</_>
        <_>
          11 13 2 9 2.</_></rects>
      <tilted>0</tilted></_>
    <_>
      <rects>
        <_>
          11 7 1 14 -1.</_>
        <_>
          11 14 1 7 2.</_></rects>
      <tilted>0</tilted></_>
    <_>
      <rects>
        <_>
          11 15 1 6 -1.</_>
        <_>
          11 18 1 3 2.</_></rects>
      <tilted>0</tilted></_>
    <_>
      <rects>
        <_>
          11 21 7 2 -1.</_>
        <_>
          11 22 7 1 2.</_></rects>
      <tilted>0</tilted></_>
    <_>
      <rects>
        <_>
          12 0 2 1 -1.</_>
        <_>
          13 0 1 1 2.</_></rects>
      <tilted>0</tilted></_>
    <_>
      <rects>
        <_>
          12 2 2 3 -1.</_>
        <_>
          12 3 2 1 3.</_></rects>
      <tilted>0</tilted></_>
    <_>
      <rects>
        <_>
          12 4 12 1 -1.</_>
        <_>
          18 4 6 1 2.</_></rects>
      <tilted>0</tilted></_>
    <_>
      <rects>
        <_>
          12 6 2 2 -1.</_>
        <_>
          12 7 2 1 2.</_></rects>
      <tilted>0</tilted></_>
    <_>
      <rects>
        <_>
          12 20 5 4 -1.</_>
        <_>
          12 22 5 2 2.</_></rects>
      <tilted>0</tilted></_>
    <_>
      <rects>
        <_>
          12 21 1 3 -1.</_>
        <_>
          12 22 1 1 3.</_></rects>
      <tilted>0</tilted></_>
    <_>
      <rects>
        <_>
          13 2 2 10 -1.</_>
        <_>
          13 7 2 5 2.</_></rects>
      <tilted>0</tilted></_>
    <_>
      <rects>
        <_>
          13 3 4 12 -1.</_>
        <_>
          15 3 2 12 2.</_></rects>
      <tilted>0</tilted></_>
    <_>
      <rects>
        <_>
          13 4 4 5 -1.</_>
        <_>
          15 4 2 5 2.</_></rects>
      <tilted>0</tilted></_>
    <_>
      <rects>
        <_>
          13 13 2 2 -1.</_>
        <_>
          13 14 2 1 2.</_></rects>
      <tilted>0</tilted></_>
    <_>
      <rects>
        <_>
          13 16 2 4 -1.</_>
        <_>
          13 18 2 2 2.</_></rects>
      <tilted>0</tilted></_>
    <_>
      <rects>
        <_>
          13 16 10 3 -1.</_>
        <_>
          13 17 10 1 3.</_></rects>
      <tilted>0</tilted></_>
    <_>
      <rects>
        <_>
          13 22 1 2 -1.</_>
        <_>
          13 23 1 1 2.</_></rects>
      <tilted>0</tilted></_>
    <_>
      <rects>
        <_>
          14 0 3 19 -1.</_>
        <_>
          15 0 1 19 3.</_></rects>
      <tilted>0</tilted></_>
    <_>
      <rects>
        <_>
          14 0 7 4 -1.</_>
        <_>
          14 2 7 2 2.</_></rects>
      <tilted>0</tilted></_>
    <_>
      <rects>
        <_>
          14 3 3 7 -1.</_>
        <_>
          15 3 1 7 3.</_></rects>
      <tilted>0</tilted></_>
    <_>
      <rects>
        <_>
          14 5 1 15 -1.</_>
        <_>
          14 10 1 5 3.</_></rects>
      <tilted>0</tilted></_>
    <_>
      <rects>
        <_>
          14 5 3 14 -1.</_>
        <_>
          14 12 3 7 2.</_></rects>
      <tilted>0</tilted></_>
    <_>
      <rects>
        <_>
          14 11 3 1 -1.</_>
        <_>
          15 11 1 1 3.</_></rects>
      <tilted>0</tilted></_>
    <_>
      <rects>
        <_>
          14 16 10 8 -1.</_>
        <_>
          14 16 5 4 2.</_>
        <_>
          19 20 5 4 2.</_></rects>
      <tilted>0</tilted></_>
    <_>
      <rects>
        <_>
          15 3 2 9 -1.</_>
        <_>
          16 3 1 9 2.</_></rects>
      <tilted>0</tilted></_>
    <_>
      <rects>
        <_>
          15 6 5 18 -1.</_>
        <_>
          15 15 5 9 2.</_></rects>
      <tilted>0</tilted></_>
    <_>
      <rects>
        <_>
          15 7 2 3 -1.</_>
        <_>
          16 7 1 3 2.</_></rects>
      <tilted>0</tilted></_>
    <_>
      <rects>
        <_>
          15 8 3 15 -1.</_>
        <_>
          15 13 3 5 3.</_></rects>
      <tilted>0</tilted></_>
    <_>
      <rects>
        <_>
          15 10 2 7 -1.</_>
        <_>
          16 10 1 7 2.</_></rects>
      <tilted>0</tilted></_>
    <_>
      <rects>
        <_>
          15 12 2 6 -1.</_>
        <_>
          16 12 1 6 2.</_></rects>
      <tilted>0</tilted></_>
    <_>
      <rects>
        <_>
          15 12 5 12 -1.</_>
        <_>
          15 18 5 6 2.</_></rects>
      <tilted>0</tilted></_>
    <_>
      <rects>
        <_>
          15 13 8 6 -1.</_>
        <_>
          19 13 4 6 2.</_></rects>
      <tilted>0</tilted></_>
    <_>
      <rects>
        <_>
          15 14 3 10 -1.</_>
        <_>
          15 19 3 5 2.</_></rects>
      <tilted>0</tilted></_>
    <_>
      <rects>
        <_>
          15 16 2 6 -1.</_>
        <_>
          15 16 1 3 2.</_>
        <_>
          16 19 1 3 2.</_></rects>
      <tilted>0</tilted></_>
    <_>
      <rects>
        <_>
          15 22 1 2 -1.</_>
        <_>
          15 23 1 1 2.</_></rects>
      <tilted>0</tilted></_>
    <_>
      <rects>
        <_>
          16 0 6 2 -1.</_>
        <_>
          16 0 3 1 2.</_>
        <_>
          19 1 3 1 2.</_></rects>
      <tilted>0</tilted></_>
    <_>
      <rects>
        <_>
          16 0 8 2 -1.</_>
        <_>
          16 1 8 1 2.</_></rects>
      <tilted>0</tilted></_>
    <_>
      <rects>
        <_>
          16 7 3 15 -1.</_>
        <_>
          16 12 3 5 3.</_></rects>
      <tilted>0</tilted></_>
    <_>
      <rects>
        <_>
          16 14 4 6 -1.</_>
        <_>
          16 14 2 3 2.</_>
        <_>
          18 17 2 3 2.</_></rects>
      <tilted>0</tilted></_>
    <_>
      <rects>
        <_>
          16 16 7 6 -1.</_>
        <_>
          16 18 7 2 3.</_></rects>
      <tilted>0</tilted></_>
    <_>
      <rects>
        <_>
          16 21 4 3 -1.</_>
        <_>
          16 22 4 1 3.</_></rects>
      <tilted>0</tilted></_>
    <_>
      <rects>
        <_>
          17 10 1 2 -1.</_>
        <_>
          17 11 1 1 2.</_></rects>
      <tilted>0</tilted></_>
    <_>
      <rects>
        <_>
          17 20 1 2 -1.</_>
        <_>
          17 21 1 1 2.</_></rects>
      <tilted>0</tilted></_>
    <_>
      <rects>
        <_>
          17 22 1 2 -1.</_>
        <_>
          17 23 1 1 2.</_></rects>
      <tilted>0</tilted></_>
    <_>
      <rects>
        <_>
          18 0 6 12 -1.</_>
        <_>
          20 0 2 12 3.</_></rects>
      <tilted>0</tilted></_>
    <_>
      <rects>
        <_>
          18 2 6 4 -1.</_>
        <_>
          20 2 2 4 3.</_></rects>
      <tilted>0</tilted></_>
    <_>
      <rects>
        <_>
          18 3 6 14 -1.</_>
        <_>
          21 3 3 14 2.</_></rects>
      <tilted>0</tilted></_>
    <_>
      <rects>
        <_>
          18 4 6 14 -1.</_>
        <_>
          21 4 3 14 2.</_></rects>
      <tilted>0</tilted></_>
    <_>
      <rects>
        <_>
          18 7 6 3 -1.</_>
        <_>
          20 7 2 3 3.</_></rects>
      <tilted>0</tilted></_>
    <_>
      <rects>
        <_>
          18 7 6 16 -1.</_>
        <_>
          18 7 3 8 2.</_>
        <_>
          21 15 3 8 2.</_></rects>
      <tilted>0</tilted></_>
    <_>
      <rects>
        <_>
          18 7 4 14 -1.</_>
        <_>
          18 14 4 7 2.</_></rects>
      <tilted>0</tilted></_>
    <_>
      <rects>
        <_>
          18 10 6 14 -1.</_>
        <_>
          18 10 3 7 2.</_>
        <_>
          21 17 3 7 2.</_></rects>
      <tilted>0</tilted></_>
    <_>
      <rects>
        <_>
          18 21 2 3 -1.</_>
        <_>
          18 22 2 1 3.</_></rects>
      <tilted>0</tilted></_>
    <_>
      <rects>
        <_>
          19 5 3 2 -1.</_>
        <_>
          19 6 3 1 2.</_></rects>
      <tilted>0</tilted></_>
    <_>
      <rects>
        <_>
          19 11 2 12 -1.</_>
        <_>
          20 11 1 12 2.</_></rects>
      <tilted>0</tilted></_>
    <_>
      <rects>
        <_>
          19 12 2 4 -1.</_>
        <_>
          19 12 1 2 2.</_>
        <_>
          20 14 1 2 2.</_></rects>
      <tilted>0</tilted></_>
    <_>
      <rects>
        <_>
          19 19 1 2 -1.</_>
        <_>
          19 20 1 1 2.</_></rects>
      <tilted>0</tilted></_>
    <_>
      <rects>
        <_>
          20 0 4 4 -1.</_>
        <_>
          22 0 2 4 2.</_></rects>
      <tilted>0</tilted></_>
    <_>
      <rects>
        <_>
          20 0 3 2 -1.</_>
        <_>
          20 1 3 1 2.</_></rects>
      <tilted>0</tilted></_>
    <_>
      <rects>
        <_>
          20 1 3 9 -1.</_>
        <_>
          21 1 1 9 3.</_></rects>
      <tilted>0</tilted></_>
    <_>
      <rects>
        <_>
          20 6 2 12 -1.</_>
        <_>
          20 6 1 6 2.</_>
        <_>
          21 12 1 6 2.</_></rects>
      <tilted>0</tilted></_>
    <_>
      <rects>
        <_>
          20 6 4 8 -1.</_>
        <_>
          22 6 2 8 2.</_></rects>
      <tilted>0</tilted></_>
    <_>
      <rects>
        <_>
          20 9 2 8 -1.</_>
        <_>
          20 9 1 4 2.</_>
        <_>
          21 13 1 4 2.</_></rects>
      <tilted>0</tilted></_>
    <_>
      <rects>
        <_>
          20 19 4 3 -1.</_>
        <_>
          20 20 4 1 3.</_></rects>
      <tilted>0</tilted></_>
    <_>
      <rects>
        <_>
          21 1 3 10 -1.</_>
        <_>
          22 1 1 10 3.</_></rects>
      <tilted>0</tilted></_>
    <_>
      <rects>
        <_>
          21 4 3 2 -1.</_>
        <_>
          22 4 1 2 3.</_></rects>
      <tilted>0</tilted></_>
    <_>
      <rects>
        <_>
          21 5 3 8 -1.</_>
        <_>
          22 5 1 8 3.</_></rects>
      <tilted>0</tilted></_>
    <_>
      <rects>
        <_>
          21 6 2 12 -1.</_>
        <_>
          21 6 1 6 2.</_>
        <_>
          22 12 1 6 2.</_></rects>
      <tilted>0</tilted></_>
    <_>
      <rects>
        <_>
          21 9 2 2 -1.</_>
        <_>
          21 9 1 1 2.</_>
        <_>
          22 10 1 1 2.</_></rects>
      <tilted>0</tilted></_>
    <_>
      <rects>
        <_>
          21 21 3 3 -1.</_>
        <_>
          21 22 3 1 3.</_></rects>
      <tilted>0</tilted></_>
    <_>
      <rects>
        <_>
          22 17 2 1 -1.</_>
        <_>
          23 17 1 1 2.</_></rects>
      <tilted>0</tilted></_>
    <_>
      <rects>
        <_>
          23 6 1 18 -1.</_>
        <_>
          23 15 1 9 2.</_></rects>
      <tilted>0</tilted></_>
    <_>
      <rects>
        <_>
          23 18 1 3 -1.</_>
        <_>
          23 19 1 1 3.</_></rects>
      <tilted>0</tilted></_>
    <_>
      <rects>
        <_>
          23 19 1 3 -1.</_>
        <_>
          23 20 1 1 3.</_></rects>
      <tilted>0</tilted></_></features></cascade>
</opencv_storage>
