<?xml version="1.0"?>
<opencv_storage>
<stage11>
  <maxWeakCount>12</maxWeakCount>
  <stageThreshold>-1.6754437685012817e+00</stageThreshold>
  <weakClassifiers>
    <_>
      <internalNodes>
        0 -1 18038 1.4846332371234894e-02</internalNodes>
      <leafValues>
        -7.7348065376281738e-01 -1.0447761416435242e-01</leafValues></_>
    <_>
      <internalNodes>
        0 -1 134130 1.2967849150300026e-02</internalNodes>
      <leafValues>
        -4.6240317821502686e-01 1.1066025495529175e-01</leafValues></_>
    <_>
      <internalNodes>
        0 -1 158915 -2.2523433435708284e-03</internalNodes>
      <leafValues>
        4.1306254267692566e-01 -2.2034123539924622e-01</leafValues></_>
    <_>
      <internalNodes>
        0 -1 133145 1.9498048350214958e-03</internalNodes>
      <leafValues>
        9.4175726175308228e-02 -9.7707170248031616e-01</leafValues></_>
    <_>
      <internalNodes>
        0 -1 110956 8.1506580114364624e-02</internalNodes>
      <leafValues>
        1.2768293917179108e-01 -7.5766128301620483e-01</leafValues></_>
    <_>
      <internalNodes>
        0 -1 38686 -5.8775357902050018e-02</internalNodes>
      <leafValues>
        -6.1352396011352539e-01 1.3375864923000336e-01</leafValues></_>
    <_>
      <internalNodes>
        0 -1 141563 -8.5092633962631226e-02</internalNodes>
      <leafValues>
        3.0463260412216187e-01 -3.0053943395614624e-01</leafValues></_>
    <_>
      <internalNodes>
        0 -1 38841 -1.4343538880348206e-01</internalNodes>
      <leafValues>
        7.9934632778167725e-01 -1.3196603953838348e-01</leafValues></_>
    <_>
      <internalNodes>
        0 -1 80484 3.5475711338222027e-03</internalNodes>
      <leafValues>
        -2.1635422110557556e-01 4.6551418304443359e-01</leafValues></_>
    <_>
      <internalNodes>
        0 -1 151781 1.1184448339918163e-05</internalNodes>
      <leafValues>
        -2.5113740563392639e-01 3.4655827283859253e-01</leafValues></_>
    <_>
      <internalNodes>
        0 -1 121281 -4.0778676047921181e-03</internalNodes>
      <leafValues>
        4.4097000360488892e-01 -2.0969963073730469e-01</leafValues></_>
    <_>
      <internalNodes>
        0 -1 70563 1.4342030044645071e-03</internalNodes>
      <leafValues>
        1.0390789806842804e-01 -7.8411149978637695e-01</leafValues></_></weakClassifiers></stage11>
</opencv_storage>
