<?xml version="1.0"?>
<opencv_storage>
<stage7>
  <maxWeakCount>10</maxWeakCount>
  <stageThreshold>-1.9047969579696655e+00</stageThreshold>
  <weakClassifiers>
    <_>
      <internalNodes>
        0 -1 153708 -6.4687460660934448e-02</internalNodes>
      <leafValues>
        -1.1258278042078018e-01 -8.2834333181381226e-01</leafValues></_>
    <_>
      <internalNodes>
        0 -1 38541 3.0998801812529564e-03</internalNodes>
      <leafValues>
        -5.9849828481674194e-01 1.2349556386470795e-01</leafValues></_>
    <_>
      <internalNodes>
        0 -1 140398 -2.4350280873477459e-03</internalNodes>
      <leafValues>
        -7.4484461545944214e-01 1.3514688611030579e-01</leafValues></_>
    <_>
      <internalNodes>
        0 -1 63616 -2.9939580708742142e-03</internalNodes>
      <leafValues>
        -8.2967990636825562e-01 1.5584179759025574e-01</leafValues></_>
    <_>
      <internalNodes>
        0 -1 60442 -3.2284918706864119e-03</internalNodes>
      <leafValues>
        7.1161109209060669e-01 -1.8434274196624756e-01</leafValues></_>
    <_>
      <internalNodes>
        0 -1 161173 1.4607906341552734e-03</internalNodes>
      <leafValues>
        1.4534935355186462e-01 -7.9839438199996948e-01</leafValues></_>
    <_>
      <internalNodes>
        0 -1 94355 -2.1730727166868746e-04</internalNodes>
      <leafValues>
        1.2348039448261261e-01 -7.2668576240539551e-01</leafValues></_>
    <_>
      <internalNodes>
        0 -1 135070 -2.4490021169185638e-03</internalNodes>
      <leafValues>
        -7.4571985006332397e-01 1.1005498468875885e-01</leafValues></_>
    <_>
      <internalNodes>
        0 -1 137620 -1.2702350431936793e-05</internalNodes>
      <leafValues>
        3.1652095913887024e-01 -3.1366431713104248e-01</leafValues></_>
    <_>
      <internalNodes>
        0 -1 50204 4.6142218634486198e-03</internalNodes>
      <leafValues>
        -3.8205105066299438e-01 2.6030486822128296e-01</leafValues></_></weakClassifiers></stage7>
</opencv_storage>
