<?xml version="1.0"?>
<opencv_storage>
<stage13>
  <maxWeakCount>10</maxWeakCount>
  <stageThreshold>-1.5327161550521851e+00</stageThreshold>
  <weakClassifiers>
    <_>
      <internalNodes>
        0 -1 14218 -5.0267934799194336e-02</internalNodes>
      <leafValues>
        5.5555558204650879e-01 -7.5506609678268433e-01</leafValues></_>
    <_>
      <internalNodes>
        0 -1 146286 6.2007210217416286e-03</internalNodes>
      <leafValues>
        -5.9543901681900024e-01 3.9268098771572113e-02</leafValues></_>
    <_>
      <internalNodes>
        0 -1 162218 -7.6153818517923355e-03</internalNodes>
      <leafValues>
        -4.7580879926681519e-01 1.6803680360317230e-01</leafValues></_>
    <_>
      <internalNodes>
        0 -1 40524 -2.0050126314163208e-01</internalNodes>
      <leafValues>
        2.9436382651329041e-01 -3.1637117266654968e-01</leafValues></_>
    <_>
      <internalNodes>
        0 -1 159668 -1.2502659810706973e-03</internalNodes>
      <leafValues>
        -6.8244844675064087e-01 1.2068287283182144e-01</leafValues></_>
    <_>
      <internalNodes>
        0 -1 49481 -1.8552056280896068e-04</internalNodes>
      <leafValues>
        3.0709296464920044e-01 -3.0393791198730469e-01</leafValues></_>
    <_>
      <internalNodes>
        0 -1 57676 2.1395469084382057e-03</internalNodes>
      <leafValues>
        -1.7326159775257111e-01 4.3671941757202148e-01</leafValues></_>
    <_>
      <internalNodes>
        0 -1 84768 5.7971179485321045e-03</internalNodes>
      <leafValues>
        1.1186897754669189e-01 -7.8648769855499268e-01</leafValues></_>
    <_>
      <internalNodes>
        0 -1 114096 1.0209667962044477e-03</internalNodes>
      <leafValues>
        1.3289916515350342e-01 -4.9017709493637085e-01</leafValues></_>
    <_>
      <internalNodes>
        0 -1 162022 1.1755518244171981e-05</internalNodes>
      <leafValues>
        -3.0157846212387085e-01 2.5232550501823425e-01</leafValues></_></weakClassifiers></stage13>
</opencv_storage>
